/*!
 * The following copyright notice may not be removed under any circumstances.
 * 
 * Copyright:
 * © 1991-1993 Kivun Computers Ltd. Portions © The Monotype Corporation
 * 
 * License information:
 * http://www.microsoft.com/typography/fonts
 */
Cufon.registerFont({"w":850,"face":{"font-family":"Aharoni","font-weight":700,"font-stretch":"normal","units-per-em":"2048","panose-1":"2 1 8 3 2 1 4 3 2 3","ascent":"1505","descent":"-543","x-height":"35","bbox":"-25 -1505 2076 467.822","underline-thickness":"150","underline-position":"-142","unicode-range":"U+0020-U+007E"},"glyphs":{" ":{"w":567},"!":{"d":"344,-285r-215,0r0,-686r215,0r0,686xm240,-246v67,0,122,60,122,127v0,64,-57,121,-122,121v-64,0,-121,-57,-121,-121v0,-67,54,-127,121,-127","w":510},"\"":{"d":"721,-1067r-158,371r-153,0r104,-371r207,0xm387,-1067r-162,371r-149,0r100,-371r211,0","w":793},"#":{"d":"834,-676r-185,0r-28,213r172,0r0,105r-185,0r-53,358r-104,0r51,-358r-226,0r-51,358r-106,0r53,-358r-172,0r0,-105r199,0r26,-213r-184,0r0,-104r197,0r53,-330r106,0r-53,330r211,0r53,-330r105,0r-51,330r172,0r0,104xm543,-676r-211,0r-29,213r213,0"},"$":{"d":"477,-578v137,26,284,126,287,269v3,181,-118,318,-287,325r0,101r-96,0r0,-101v-178,2,-294,-112,-291,-290r207,0v0,58,28,95,84,112r0,-237v-181,-39,-272,-134,-272,-287v0,-148,129,-271,272,-277r0,-94r96,0r0,94v143,4,260,105,258,252r-200,0v-4,-34,-23,-61,-58,-80r0,213xm381,-604r0,-182v-85,23,-101,172,0,182xm477,-160v98,-29,105,-200,0,-221r0,221"},"%":{"d":"977,-543v138,0,231,128,231,273v0,153,-84,282,-231,282v-147,0,-232,-129,-232,-282v0,-146,94,-273,232,-273xm969,-938r-520,938r-111,0r522,-938r109,0xm334,-952v139,0,231,128,231,272v0,155,-86,283,-231,283v-146,0,-232,-128,-232,-283v0,-145,93,-272,232,-272xm977,-115v119,-7,120,-294,0,-301v-120,6,-119,294,0,301xm334,-524v118,-6,121,-294,0,-301v-120,6,-118,295,0,301","w":1303},"&":{"d":"612,-1242v197,0,374,105,373,287v0,113,-80,215,-241,305r156,156v24,-46,40,-88,47,-126r238,77v-21,86,-55,163,-100,230v33,29,78,59,135,92r-123,254v-73,-43,-134,-87,-182,-132v-99,89,-222,134,-367,134v-241,0,-437,-133,-437,-364v0,-140,89,-257,266,-352v-53,-63,-85,-104,-96,-123v-25,-43,-38,-92,-38,-149v0,-170,187,-289,369,-289xm619,-1043v-55,0,-103,36,-103,90v0,73,59,113,94,156v48,-33,116,-64,116,-141v0,-59,-51,-105,-107,-105xm401,-342v0,62,78,136,137,136v81,0,149,-28,206,-83r-237,-235v-71,41,-106,101,-106,182","w":1311},"'":{"d":"369,-1063r-160,363r-148,0r101,-363r207,0","w":453},"(":{"d":"315,-143v2,118,62,148,189,149r0,176v-242,20,-391,-97,-391,-325r0,-656v0,-229,149,-345,391,-325r0,176v-127,1,-189,30,-189,149r0,656","w":625},")":{"d":"121,-1124v241,-19,391,96,391,325r0,656v0,227,-149,345,-391,325r0,-176v127,-1,188,-30,188,-149r0,-656v-2,-118,-61,-148,-188,-149r0,-176","w":625},"*":{"d":"563,-795v-5,37,-26,78,-63,123r-127,-80r18,148v-43,10,-87,11,-139,0r10,-150r-119,86v-29,-22,-50,-63,-63,-123r129,-49r-133,-57v9,-43,32,-82,67,-117r119,72r-18,-139v42,-17,86,-16,143,-4r-10,143r110,-78v43,25,67,64,70,117r-127,55","w":625},"+":{"d":"1120,-385r-415,0r0,434r-123,0r0,-434r-416,0r0,-123r416,0r0,-434r123,0r0,434r415,0r0,123","w":1249},",":{"d":"373,-195r-135,324r-162,0r86,-324r211,0","w":453},"-":{"d":"528,-360r-438,0r0,-213r438,0r0,213","w":625},".":{"d":"238,-223v65,0,120,54,120,119v0,65,-55,120,-120,120v-67,0,-123,-54,-123,-120v0,-66,56,-119,123,-119","w":453},"\/":{"d":"621,-942r-420,944r-125,0r426,-944r119,0","w":682},"0":{"d":"426,-961v221,-1,342,235,342,480v0,264,-108,501,-342,501v-233,0,-342,-238,-342,-501v0,-246,120,-480,342,-480xm426,-748v-91,0,-121,149,-121,269v0,188,40,282,121,282v81,0,121,-94,121,-282v0,-76,-10,-139,-31,-189v-23,-53,-53,-80,-90,-80"},"1":{"d":"602,0r-207,0r0,-575v-45,26,-105,69,-157,79r0,-215v93,-55,158,-129,196,-223r168,0r0,934"},"2":{"d":"342,-961v201,0,369,116,369,304v0,176,-142,317,-217,440r288,0r-96,217r-598,0r0,-12r326,-426v46,-61,69,-117,69,-170v-1,-152,-191,-193,-331,-129r0,-201v62,-15,125,-23,190,-23"},"3":{"d":"616,-524v80,33,145,123,146,229v3,190,-182,315,-383,315v-95,0,-179,-20,-254,-59r61,-190v91,30,158,45,201,45v78,1,152,-39,152,-109v2,-96,-120,-139,-224,-119r0,-147v122,0,183,-37,183,-111v0,-61,-74,-96,-142,-96v-55,0,-108,14,-159,45r0,-201v63,-26,131,-39,204,-39v170,-2,318,95,318,256v0,85,-34,146,-103,181"},"4":{"d":"788,-315r-73,178r-33,0r0,137r-201,0r0,-137r-387,0r0,-162r387,-635r201,0r0,619r106,0xm481,-315r0,-285r-184,285r184,0"},"5":{"d":"504,-332v0,-120,-177,-168,-342,-143r119,-459r462,0r-43,166r-251,0r-37,129v190,-2,315,108,315,297v0,279,-289,432,-575,332r0,-203v47,21,97,31,149,31v135,0,203,-50,203,-150"},"6":{"d":"469,-639v168,19,299,126,299,303v0,207,-141,356,-344,356v-198,0,-346,-151,-338,-354v6,-168,68,-237,168,-360r195,-240r260,0xm428,-199v63,0,121,-57,121,-120v0,-64,-57,-121,-121,-121v-64,0,-121,57,-121,121v0,63,58,120,121,120"},"7":{"d":"782,-934r-387,934r-229,0r311,-758r-334,0r76,-176r563,0"},"8":{"d":"416,-961v166,0,307,122,307,287v0,74,-25,128,-76,162v70,56,105,128,105,217v0,182,-153,315,-336,315v-183,0,-336,-134,-336,-315v0,-87,35,-159,104,-217v-50,-41,-75,-95,-75,-162v0,-166,140,-287,307,-287xm416,-569v52,0,98,-47,98,-99v0,-52,-46,-98,-98,-98v-52,0,-99,46,-99,98v0,52,47,99,99,99xm416,-174v61,0,119,-57,119,-119v0,-61,-59,-119,-119,-119v-62,0,-119,58,-119,119v0,62,57,119,119,119"},"9":{"d":"426,-950v198,0,346,152,338,354v-6,168,-68,237,-168,360r-195,240r-260,0r240,-295v-168,-20,-299,-125,-299,-303v0,-207,142,-356,344,-356xm422,-489v63,0,121,-58,121,-121v0,-63,-58,-121,-121,-121v-63,0,-121,58,-121,121v0,63,58,121,121,121"},":":{"d":"211,-737v66,0,123,57,123,123v0,65,-57,120,-123,120v-66,0,-123,-55,-123,-120v0,-66,57,-123,123,-123xm211,-223v66,0,123,57,123,123v0,65,-57,120,-123,120v-66,0,-123,-55,-123,-120v0,-66,57,-123,123,-123","w":567},";":{"d":"236,-737v65,0,122,57,122,123v0,65,-57,120,-122,120v-66,0,-123,-55,-123,-120v0,-66,57,-123,123,-123xm358,-195r-135,330r-155,0r86,-330r204,0","w":567},"<":{"d":"1057,41r-885,-422r0,-160r885,-422r0,164r-723,342r723,334r0,164","w":1229},"=":{"d":"1120,-518r-954,0r0,-123r954,0r0,123xm1120,-252r-954,0r0,-123r954,0r0,123","w":1249},">":{"d":"1057,-381r-885,422r0,-164r723,-334r-723,-342r0,-164r885,422r0,160","w":1229},"?":{"d":"432,-961v201,0,352,142,352,338v0,160,-100,300,-235,310r0,53r-201,0r0,-244v36,15,64,23,84,23v76,2,139,-64,139,-140v0,-74,-67,-141,-139,-141v-65,0,-137,65,-141,125r-207,-27v30,-163,163,-297,348,-297xm449,-215v64,0,118,56,118,119v0,64,-54,116,-118,116v-65,0,-119,-52,-119,-116v0,-64,54,-119,119,-119","w":965},"@":{"d":"731,-1406v370,0,699,264,696,630v-2,258,-152,494,-395,494v-74,0,-122,-30,-156,-88v-61,61,-133,91,-216,91v-196,0,-330,-171,-330,-374v0,-286,301,-497,556,-331r12,-43r189,0r-55,451v-3,27,-5,58,-5,91v0,26,8,39,23,39v134,0,204,-170,206,-316v4,-289,-238,-480,-529,-480v-309,0,-558,257,-558,563v0,315,234,552,580,552v169,0,312,-53,431,-113r65,165v-134,71,-308,125,-493,125v-335,0,-577,-162,-692,-396v-52,-105,-79,-215,-79,-332v0,-412,346,-728,750,-728xm667,-470v108,0,199,-114,199,-225v0,-94,-75,-159,-168,-157v-102,2,-167,96,-167,209v0,91,52,173,136,173","w":1409},"A":{"d":"1440,0r-379,0r-88,-238r-490,0r-94,238r-375,0r525,-1365r387,0xm877,-508r-147,-435r-149,435r296,0","w":1454},"B":{"d":"905,-726v189,36,278,142,278,338v0,265,-197,389,-471,388r-569,0r0,-1365r528,0v256,0,384,119,384,356v0,144,-53,226,-150,283xm498,-828v129,9,230,-19,229,-134v0,-89,-61,-136,-164,-133r-65,0r0,267xm577,-270v155,-1,245,-21,251,-142v8,-153,-156,-151,-330,-146r0,288r79,0","w":1266},"C":{"d":"820,-308v132,-1,237,-59,306,-149r0,425v-294,120,-561,82,-784,-96v-174,-140,-260,-324,-260,-550v0,-227,86,-412,260,-551v223,-178,488,-217,784,-96r0,425v-69,-89,-174,-148,-306,-149v-210,-2,-369,161,-369,371v0,210,160,372,369,370","w":1208},"D":{"d":"1270,-980v112,235,87,492,-58,692v-124,170,-285,288,-545,288r-524,0r0,-1365r524,0v280,3,504,178,603,385xm579,-297v235,7,392,-159,392,-386v0,-226,-159,-393,-392,-385r-81,0r0,771r81,0","w":1423},"E":{"d":"920,0r-777,0r0,-1365r777,0r0,297r-422,0r0,231r399,0r0,297r-399,0r0,243r422,0r0,297","w":1002},"F":{"d":"925,-1068r-427,0r0,231r389,0r0,297r-389,0r0,540r-355,0r0,-1365r782,0r0,297","w":994},"G":{"d":"484,-859v-104,276,37,608,332,604v159,-2,262,-79,282,-233r-291,0r0,-270r704,0v2,350,-99,553,-301,690v-111,76,-246,110,-400,110v-426,0,-728,-296,-729,-719v-1,-429,304,-741,742,-732v311,6,504,148,615,384r-337,139v-54,-127,-142,-212,-295,-212v-154,0,-261,80,-322,239","w":1593},"H":{"d":"1365,0r-355,0r0,-568r-512,0r0,568r-355,0r0,-1365r355,0r0,527r512,0r0,-527r355,0r0,1365","w":1509},"I":{"d":"498,0r-355,0r0,-1365r355,0r0,1365","w":642},"J":{"d":"816,-421v1,175,-31,244,-131,340v-84,80,-191,118,-315,118v-147,0,-265,-67,-356,-202r232,-237v11,89,49,133,116,133v68,0,100,-53,100,-158r-1,-938r355,0r0,944","w":959},"K":{"d":"1419,0r-460,0r-461,-592r0,592r-355,0r0,-1365r355,0r0,563r433,-563r438,0r-542,646","w":1433},"L":{"d":"924,0r-781,0r0,-1365r355,0r0,1068r426,0r0,297","w":963},"M":{"d":"1793,0r-355,0r-101,-786r-330,786r-141,0r-315,-786r-116,786r-353,0r232,-1365r350,0r277,728r293,-728r353,0","w":1875},"N":{"d":"1506,0r-355,0r-653,-836r0,836r-355,0r0,-1365r355,0r653,835r0,-835r355,0r0,1365","w":1649},"O":{"d":"82,-678v0,-437,321,-728,755,-728v240,0,428,81,571,239v244,270,245,707,0,977v-143,157,-331,239,-571,239v-239,0,-429,-80,-570,-239v-123,-140,-185,-303,-185,-488xm837,-296v207,0,387,-172,387,-382v0,-213,-183,-390,-387,-383v-221,8,-381,156,-386,383v-5,206,180,382,386,382","w":1675},"P":{"d":"708,-1365v288,-5,474,171,474,450v0,292,-160,468,-462,463r-222,0r0,452r-355,0r0,-1365r565,0xm616,-739v135,1,197,-51,197,-172v0,-114,-67,-169,-196,-167r-119,0r0,339r118,0","w":1227},"Q":{"d":"1646,39r-326,50r-108,-127v-117,58,-242,87,-374,87v-239,0,-427,-82,-571,-239v-245,-268,-244,-709,0,-977v143,-157,332,-239,571,-239v240,0,429,81,571,239v243,270,247,696,5,971xm451,-678v3,243,230,444,497,367r-219,-220r334,-41r97,103v43,-66,65,-136,65,-209v3,-209,-181,-383,-387,-383v-206,0,-389,176,-387,383","w":1675},"R":{"d":"1147,-945v0,208,-111,348,-298,385r429,560r-442,0r-338,-524r0,524r-355,0r0,-1365r552,0v274,-8,452,166,452,420xm564,-754v134,4,214,-60,214,-171v0,-110,-82,-174,-214,-170r-66,0r0,341r66,0","w":1284},"S":{"d":"658,-1101v-74,0,-153,46,-153,117v0,36,22,67,67,93v20,12,80,31,180,62v206,64,329,144,337,377v10,309,-208,488,-532,488v-171,0,-329,-52,-475,-155r152,-286v107,96,211,144,313,144v91,0,174,-48,173,-134v0,-40,-23,-70,-62,-100v-44,-33,-282,-98,-321,-115v-125,-54,-201,-157,-201,-326v0,-271,199,-462,465,-462v147,0,292,37,433,111r-142,276v-77,-60,-155,-90,-234,-90","w":1170},"T":{"d":"952,-1068r-294,0r0,1068r-355,0r0,-1068r-289,0r0,-297r938,0r0,297","w":965},"U":{"d":"1334,-578v-1,227,-45,330,-168,456v-202,207,-692,209,-886,-3v-102,-111,-138,-231,-137,-453r0,-787r355,0r0,739v-5,179,12,270,130,327v106,51,245,17,302,-68v31,-46,49,-131,49,-259r0,-739r355,0r0,787","w":1477},"V":{"d":"1432,-1365r-582,1365r-276,0r-574,-1365r386,0r329,830r332,-830r385,0","w":1432},"W":{"d":"2076,-1365r-436,1365r-362,0r-249,-791r-261,791r-361,0r-407,-1365r371,0r237,882r289,-882r282,0r269,882r258,-882r370,0","w":2076},"X":{"d":"1455,0r-428,0r-292,-444r-306,444r-429,0r534,-728r-437,-637r437,0r203,354r212,-354r436,0r-445,637","w":1455},"Y":{"d":"1335,-1365r-511,709r0,656r-355,0r0,-656r-494,-709r424,0r258,372r248,-372r430,0","w":1311},"Z":{"d":"1265,-1365r-643,1068r573,0r0,297r-1168,0r646,-1068r-537,0r0,-297r1129,0","w":1293},"[":{"d":"453,205r-338,0r0,-1307r338,0r0,176r-152,0r0,944r152,0r0,187","w":625},"\\":{"d":"541,0r-146,0r-395,-1194r160,0","w":565},"]":{"d":"502,205r-338,0r0,-187r151,0r0,-944r-151,0r0,-176r338,0r0,1307","w":625},"^":{"d":"768,-436r-119,0r-252,-568r-252,568r-118,0r317,-701r107,0","w":788},"_":{"d":"1053,258r-1053,0r0,-113r1053,0r0,113","w":1032},"`":{"d":"664,-1177r-152,112r-315,-279r208,-149","w":1024},"a":{"d":"541,-958v125,0,219,43,289,121r0,-91r328,0r0,928r-328,0r0,-103v-65,87,-154,132,-286,133v-260,2,-469,-226,-469,-495v0,-269,203,-493,466,-493xm628,-253v116,0,212,-95,212,-211v0,-114,-98,-211,-212,-211v-113,0,-212,97,-212,211v0,114,98,211,212,211","w":1270},"b":{"d":"729,-958v263,-2,466,225,466,493v0,270,-208,496,-469,495v-129,-1,-225,-48,-286,-133r0,103r-328,0r0,-1502r328,0r0,665v71,-78,164,-120,289,-121xm642,-253v115,0,212,-98,212,-211v0,-114,-99,-211,-212,-211v-114,0,-212,97,-212,211v0,114,98,211,212,211","w":1270},"c":{"d":"416,-463v0,128,98,224,226,224v55,0,111,-20,170,-60r0,279v-68,34,-139,51,-214,51v-289,0,-523,-212,-523,-494v0,-282,234,-494,523,-494v76,0,147,17,214,52r0,279v-58,-41,-115,-61,-170,-61v-128,0,-226,96,-226,224","w":887},"d":{"d":"541,-958v125,0,219,43,289,121r0,-665r328,0r0,1502r-328,0r0,-103v-65,87,-154,132,-286,133v-260,2,-469,-226,-469,-495v0,-269,203,-493,466,-493xm628,-253v116,0,212,-95,212,-211v0,-114,-98,-211,-212,-211v-113,0,-212,97,-212,211v0,114,98,211,212,211","w":1270},"e":{"d":"591,-954v322,0,518,208,506,550r-690,0v0,139,67,209,202,209v69,0,121,-29,158,-88r317,0v-58,210,-224,316,-471,320v-317,5,-536,-185,-538,-491v-2,-302,201,-500,516,-500xm791,-592v-23,-103,-86,-154,-187,-154v-103,0,-174,60,-188,154r375,0","w":1172},"f":{"d":"583,-1222v-100,0,-119,53,-116,194r0,100r231,0r0,270r-231,0r0,658r-328,0r0,-658r-117,0r0,-270r117,0r0,-123v-11,-274,181,-451,414,-454v48,0,96,11,145,34r0,286v-45,-25,-83,-37,-115,-37","w":708},"g":{"d":"545,-954v129,2,210,42,278,123r0,-97r328,0r0,864v0,217,-33,300,-157,412v-181,164,-603,159,-775,-11v-76,-75,-118,-123,-133,-224r369,0v22,69,74,99,155,99v130,0,217,-80,213,-227r0,-88v-84,80,-155,122,-295,122v-273,0,-447,-186,-453,-469v-6,-278,202,-507,470,-504xm628,-251v115,0,211,-101,211,-216v0,-115,-95,-217,-211,-217v-115,0,-212,99,-212,217v0,115,96,216,212,216","w":1263},"h":{"d":"740,-949v215,0,351,134,351,358r0,591r-328,0r0,-470v3,-156,-31,-223,-151,-223v-107,0,-172,73,-172,196r0,497r-328,0r0,-1502r328,0r0,691v78,-93,149,-138,300,-138","w":1203},"i":{"d":"275,-1469v100,0,185,84,185,184v0,101,-84,185,-185,185v-100,0,-184,-85,-184,-185v0,-100,84,-184,184,-184xm439,0r-328,0r0,-928r328,0r0,928","w":552},"j":{"d":"275,-1469v100,0,185,84,185,184v0,101,-84,185,-185,185v-100,0,-184,-85,-184,-185v0,-100,84,-184,184,-184xm439,464r-328,0r0,-1392r328,0r0,1392","w":552},"k":{"d":"1261,0r-460,0r-361,-378r0,378r-328,0r0,-1502r328,0r0,908r343,-334r450,0r-465,428","w":1264},"l":{"d":"440,0r-328,0r0,-1502r328,0r0,1502","w":552},"m":{"d":"1367,-944v200,0,315,119,315,341r0,603r-328,0r0,-459v2,-147,-26,-229,-136,-229v-111,0,-157,90,-157,229r0,459r-328,0r0,-459v0,-80,-7,-132,-20,-156v-27,-48,-68,-72,-123,-72v-112,0,-150,91,-150,228r0,459r-328,0r0,-928r328,0r0,114v80,-80,164,-129,300,-129v153,0,252,66,316,173v59,-103,174,-174,311,-174","w":1795},"n":{"d":"740,-948v218,0,351,133,351,357r0,591r-328,0r0,-470v3,-155,-32,-222,-151,-222v-105,0,-172,72,-172,195r0,497r-328,0r0,-928r328,0r0,117v79,-93,148,-137,300,-137","w":1203},"o":{"d":"644,-962v300,0,548,205,548,498v0,300,-244,499,-558,499v-320,0,-559,-198,-559,-507v0,-291,251,-490,569,-490xm634,-248v118,0,217,-98,217,-216v0,-117,-100,-215,-217,-215v-117,0,-218,98,-218,215v0,118,101,216,218,216","w":1267},"p":{"d":"726,-958v260,-2,469,226,469,495v0,269,-203,493,-466,493v-125,0,-219,-43,-289,-121r0,555r-328,0r0,-1392r328,0r0,103v62,-86,156,-132,286,-133xm642,-253v115,0,212,-97,212,-211v0,-117,-98,-211,-212,-211v-116,0,-212,95,-212,211v0,114,98,211,212,211","w":1270},"q":{"d":"544,-958v131,1,222,47,286,133r0,-103r328,0r0,1392r-328,0r0,-555v-71,78,-164,120,-289,121v-263,2,-466,-225,-466,-493v0,-270,208,-497,469,-495xm628,-253v114,0,212,-97,212,-211v0,-116,-96,-211,-212,-211v-115,0,-212,97,-212,211v0,114,98,211,212,211","w":1270},"r":{"d":"440,-776v73,-122,183,-178,368,-162r0,313v-46,-22,-93,-33,-140,-33v-155,1,-228,91,-228,261r0,397r-328,0r0,-928r328,0r0,152","w":842},"s":{"d":"126,-631v0,-212,174,-330,413,-330v103,0,204,20,301,60r-111,212v-61,-31,-120,-47,-176,-47v-99,0,-134,83,-59,118v12,6,47,15,106,27v163,32,267,111,267,278v0,228,-194,348,-441,348v-127,0,-251,-36,-371,-107r119,-232v94,62,181,93,262,93v104,0,134,-85,67,-128v-25,-16,-199,-51,-223,-62v-98,-43,-154,-101,-154,-230","w":922},"t":{"d":"665,-658r-187,0r0,658r-328,0r0,-658r-108,0r0,-270r108,0r0,-279r328,0r0,279r187,0r0,270","w":675},"u":{"d":"607,-230v106,0,166,-58,166,-172r0,-526r328,0r0,589v6,257,-204,383,-494,379v-296,-4,-495,-103,-495,-379r0,-589r328,0r0,526v-2,115,59,172,167,172","w":1212},"v":{"d":"1181,-928r-483,928r-219,0r-479,-928r369,0r222,476r223,-476r367,0","w":1181},"w":{"d":"1857,-928r-486,928r-219,0r-232,-509r-222,509r-221,0r-477,-928r366,0r222,489r233,-489r206,0r232,503r233,-503r365,0","w":1857},"x":{"d":"1344,0r-434,0r-239,-276r-238,276r-433,0r464,-504r-377,-424r427,0r160,191r163,-191r426,0r-384,424","w":1344},"y":{"d":"1246,-928r-745,1392r-368,0r315,-591r-448,-801r381,0r248,476r241,-476r376,0","w":1246},"z":{"d":"1026,-928r-435,658r391,0r0,270r-941,0r438,-658r-379,0r0,-270r926,0","w":1067},"{":{"d":"530,-276v0,50,-11,223,-10,274v1,172,59,273,174,303v-220,32,-319,-78,-313,-307r6,-240v2,-177,-31,-281,-162,-307v130,-25,166,-131,162,-307r-6,-240v-6,-230,91,-338,313,-307v-115,30,-173,131,-174,303v-1,52,10,226,10,275v0,164,-32,254,-159,276v127,21,159,114,159,277","w":983},"|":{"d":"195,0r-129,0r0,-1194r129,0r0,1194","w":258},"}":{"d":"596,-860v-2,177,31,281,162,307v-130,25,-166,131,-162,307r6,240v6,230,-91,338,-313,307v115,-30,173,-131,174,-303v1,-52,-11,-224,-10,-274v-1,-163,31,-255,159,-277v-127,-21,-159,-113,-159,-276v0,-49,11,-223,10,-275v-1,-172,-59,-273,-174,-303v220,-32,319,78,313,307","w":983},"~":{"d":"330,-553v-123,7,-158,80,-234,182r-76,-100v82,-145,184,-217,305,-217v93,0,310,134,449,134v77,0,147,-52,209,-155r98,64v-90,158,-194,237,-311,237v-151,0,-314,-152,-440,-145","w":1112},"\u00a0":{"w":567}}});
