/*!
 * The following copyright notice may not be removed under any circumstances.
 * 
 * Copyright:
 * Data by Eraman Ltd., and Monotype Typography Inc. © 1995. Microsoft
 * Corporation. All rights reserved.
 * 
 * Description:
 * Haettenschweiler derives from a more condensed typeface, called Schmalfette
 * Grotesk, first shown in the early 1960s in a splendid book called Lettera by
 * Walter Haettenschweiler and Armin Haab. Schmalfette Grotesk was a very
 * condensed, very bold alphabet of all capitals  schmalfette means "bold
 * condensed" in German, and grotesk indicates it is without serifs.
 * It was immediately picked up by designers at Paris Match who cut up pictures of
 * it to make headlines. Soon everybody wanted it. In due course, extra-bold
 * extra-condensed faces for families like Helvetica began to appear, looking
 * remarkably like the original Schmalfette.
 * Photoscript had made a lowercase version quite early on. Later, they made a
 * less condensed version and called it Haettenschweiler Extended as a tribute to a
 * designer whose idea so greatly affected the graphic scene in the second half of
 * the century. Use this distinguished face in large sizes for headlines.
 */
Cufon.registerFont({"w":729,"face":{"font-family":"Haettenschweiler","font-weight":400,"font-stretch":"normal","units-per-em":"2048","panose-1":"2 11 7 6 4 9 2 6 2 4","ascent":"1638","descent":"-410","x-height":"16","bbox":"-121 -1528 1616 247.048","underline-thickness":"102","underline-position":"-154","unicode-range":"U+0020-U+007E"},"glyphs":{" ":{"w":365},"\u00a0":{"w":365},"!":{"d":"315,-272r-285,0r0,-1162r285,0r0,1162xm315,0r-285,0r0,-209r285,0r0,209","w":344},"\"":{"d":"744,-1434r-290,498r-121,-20r133,-478r278,0xm433,-1434r-291,498r-121,-20r134,-478r278,0","w":766},"#":{"d":"1616,-1151r-49,285r-285,0r-51,299r282,0r-51,284r-283,0r-49,283r-284,0r49,-283r-299,0r-49,283r-285,0r49,-283r-283,0r52,-284r280,0r54,-299r-281,0r49,-285r283,0r49,-283r285,0r-50,283r299,0r50,-283r284,0r-49,283r283,0xm997,-866r-299,0r-51,299r297,0","w":1645},"$":{"d":"527,4r0,94r-284,0r0,-98v-142,-36,-213,-117,-213,-244r0,-327r287,0r0,329v0,33,20,49,59,49v38,0,57,-16,57,-49v0,-112,18,-208,-41,-278v-29,-35,-116,-123,-258,-268v-73,-75,-104,-150,-104,-216r0,-161v0,-147,71,-235,213,-265r0,-98r284,0r0,98v129,31,193,111,193,240r0,248r-287,0r0,-264v0,-29,-16,-43,-47,-43v-69,0,-49,110,-49,176v0,53,34,116,106,188v142,142,227,236,259,280v60,83,45,204,45,335v0,153,-73,245,-220,274","w":776},"%":{"d":"45,-965r0,-378v0,-67,46,-101,139,-101v93,0,140,34,140,101r0,378v0,62,-47,93,-140,93v-93,0,-139,-31,-139,-93xm203,-961r0,-395v0,-11,-6,-16,-19,-16v-13,0,-20,5,-20,16r0,395v0,11,7,17,20,17v13,0,19,-6,19,-17xm682,-1434r-518,1434r-137,0r518,-1434r137,0xm387,-76r0,-379v0,-67,46,-100,139,-100v93,0,140,33,140,100r0,379v0,61,-47,92,-140,92v-93,0,-139,-31,-139,-92xm545,-72r0,-395v0,-11,-6,-16,-19,-16v-13,0,-20,5,-20,16r0,395v0,11,7,17,20,17v13,0,19,-6,19,-17","w":709},"&":{"d":"448,-688v-97,4,-115,0,-115,100r0,344v0,40,19,60,57,60v39,0,58,-20,58,-60r0,-317r397,0r0,164r-103,0r0,182v0,158,-181,233,-352,231v-188,-2,-356,-88,-356,-286r0,-269v0,-127,63,-204,188,-233v-119,-41,-178,-109,-178,-205r0,-211v-3,-161,165,-258,332,-256v168,2,338,85,338,260r0,176r-271,0v6,-84,21,-239,-57,-239v-38,0,-57,20,-57,59r0,227v2,93,26,96,119,99r0,174","w":872},"'":{"d":"433,-1434r-291,498r-121,-20r134,-478r278,0","w":455},"(":{"d":"30,-1163v8,-238,13,-276,268,-281r182,0r0,156v-110,0,-165,23,-165,69r0,1010v0,47,55,70,165,70r0,155r-182,0v-215,1,-268,-82,-268,-280r0,-899","w":506},")":{"d":"476,-264v-2,215,-62,276,-268,280r-182,0r0,-155v111,0,166,-23,166,-70r0,-1010v0,-46,-55,-69,-166,-69r0,-156r182,0v251,5,268,44,268,281r0,899","w":506},"*":{"d":"835,-1081r-273,88r168,229r-133,96r-166,-229r-166,229r-133,-96r168,-229r-272,-88r51,-156r270,88r0,-285r164,0r0,285r270,-88","w":862},"+":{"d":"741,-279r-279,0r0,279r-162,0r0,-279r-278,0r0,-161r278,0r0,-279r162,0r0,279r279,0r0,161","w":764},",":{"d":"127,172r-57,-47v45,-45,69,-86,73,-125r-112,0r0,-209r260,0r0,143v0,87,-55,166,-164,238","w":322},"-":{"d":"444,-510r-407,0r0,-161r407,0r0,161","w":461},"\u00ad":{"d":"444,-510r-407,0r0,-161r407,0r0,161","w":461},".":{"d":"288,0r-260,0r0,-209r260,0r0,209","w":315},"\/":{"d":"656,-1434r-458,1434r-170,0r458,-1434r170,0","w":684},"0":{"d":"399,13v-198,0,-369,-76,-369,-258r0,-923v0,-186,124,-279,371,-279v243,0,364,92,364,277r0,923v-1,179,-174,260,-366,260xm450,-230r0,-977v0,-29,-17,-43,-51,-43v-36,0,-54,14,-54,43r0,977v0,29,18,43,54,43v34,0,51,-14,51,-43","w":795},"1":{"d":"29,-1260v84,7,165,-99,164,-174r272,0r0,1434r-315,0r0,-1051r-121,0r0,-209","w":500},"2":{"d":"382,-1447v305,0,363,129,363,435v0,61,-10,111,-31,150r-354,678r385,0r0,184r-719,0r0,-190r354,-650v39,-71,58,-167,58,-290v0,-64,-21,-96,-64,-96v-44,0,-66,20,-66,60r0,246r-282,0r0,-250v0,-185,119,-277,356,-277","w":770},"3":{"d":"387,-1447v178,1,351,73,351,254r0,197v0,115,-55,192,-164,231v112,33,168,121,168,266r0,213v0,199,-118,299,-355,299v-240,0,-360,-91,-360,-272r0,-342r289,0r0,340v0,35,19,53,57,53v38,0,57,-18,57,-53r0,-332v-3,-87,-40,-96,-135,-98r0,-162v90,0,135,-28,135,-84r0,-254v0,-29,-19,-43,-57,-43v-39,0,-59,14,-59,43r0,264r-279,0r0,-266v0,-169,117,-254,352,-254","w":768},"4":{"d":"897,-184r-156,0r0,184r-307,0r0,-184r-426,0r0,-203r309,-1047r424,0r0,1035r156,0r0,215xm434,-399r0,-566r-143,566r143,0","w":903},"5":{"d":"745,-247v-1,179,-166,260,-359,260v-240,0,-360,-86,-360,-258r0,-357r307,0r0,368v0,31,18,47,53,47v35,0,52,-16,52,-47r0,-477v0,-34,-19,-51,-58,-51v-35,0,-54,29,-55,88r-295,-8r16,-752r707,0r-49,217r-357,0r-14,295v31,-31,86,-47,164,-47v165,0,248,71,248,213r0,509","w":770},"6":{"d":"744,-247v-1,180,-166,260,-359,260v-240,0,-360,-86,-360,-258r0,-923v0,-186,121,-279,362,-279v238,0,357,92,357,277r0,145r-307,0v5,-78,21,-227,-52,-227v-35,0,-53,16,-53,47r0,280v23,-31,73,-47,150,-47v142,0,262,76,262,213r0,512xm437,-234r0,-469v0,-32,-17,-48,-52,-48v-35,0,-53,16,-53,48r0,469v0,31,18,47,53,47v35,0,52,-16,52,-47","w":768},"7":{"d":"754,-1229r-394,1229r-340,0r394,-1233r-371,0r0,-201r711,0r0,205","w":770},"8":{"d":"388,-1447v178,1,356,73,351,254r0,150v0,146,-53,235,-158,268v111,27,166,100,166,221r0,295v0,181,-120,272,-361,272v-239,0,-358,-91,-358,-272r0,-295v0,-121,55,-195,166,-221v-105,-33,-158,-122,-158,-268r0,-150v0,-169,117,-254,352,-254xm440,-908r0,-299v0,-29,-17,-43,-52,-43v-35,0,-53,14,-53,43r0,299v0,29,18,43,53,43v35,0,52,-14,52,-43xm440,-230r0,-418v0,-29,-17,-43,-52,-43v-35,0,-53,14,-53,43r0,418v0,29,18,43,53,43v35,0,52,-14,52,-43","w":774},"9":{"d":"387,-1447v195,0,361,78,361,258r0,924v0,185,-121,278,-363,278v-237,0,-356,-92,-356,-276r0,-336r307,0r0,365v0,31,18,47,53,47v35,0,52,-16,52,-47r0,-426v-23,24,-65,36,-127,36v-157,2,-285,-79,-285,-229r0,-334v1,-180,165,-260,358,-260xm441,-861r0,-344v0,-31,-17,-47,-52,-47v-35,0,-53,16,-53,47r0,344v0,31,18,47,53,47v35,0,52,-16,52,-47","w":776},":":{"d":"289,-688r-260,0r0,-209r260,0r0,209xm289,2r-260,0r0,-209r260,0r0,209","w":317},";":{"d":"290,-688r-260,0r0,-209r260,0r0,209xm124,172r-57,-47v45,-45,69,-86,73,-125r-112,0r0,-209r260,0r0,143v0,87,-55,166,-164,238","w":317},"\u037e":{"d":"290,-688r-260,0r0,-209r260,0r0,209xm124,172r-57,-47v45,-45,69,-86,73,-125r-112,0r0,-209r260,0r0,143v0,87,-55,166,-164,238","w":317},"<":{"d":"751,-14r-719,-265r0,-161r719,-262r0,161r-498,183r498,182r0,162","w":782},"=":{"d":"751,-440r-719,0r0,-162r719,0r0,162xm751,-117r-719,0r0,-162r719,0r0,162","w":782},">":{"d":"750,-279r-719,265r0,-162r497,-182r-497,-183r0,-161r719,262r0,161","w":780},"?":{"d":"357,-1444v217,0,345,54,342,279v-2,121,12,255,-29,338v-21,42,-66,103,-135,185v-102,121,-94,148,-98,374r-284,0v2,-271,9,-301,150,-478v66,-82,99,-149,99,-202r0,-258v0,-29,-16,-43,-47,-43v-31,0,-47,14,-47,43r0,366r-274,0r0,-350v0,-169,108,-254,323,-254xm437,0r-284,0r0,-209r284,0r0,209","w":727},"@":{"d":"1614,-604v0,255,-173,467,-426,467v-111,0,-193,-33,-244,-99v-51,65,-139,97,-266,97v-156,0,-234,-61,-234,-183r0,-514v0,-121,78,-182,234,-182v95,0,156,21,182,62r0,-54r252,0r0,570v0,91,27,137,82,137v163,0,244,-102,244,-307v0,-445,-201,-668,-604,-668v-223,0,-383,68,-486,199v-201,258,-197,688,2,947v104,135,263,204,484,204v171,0,323,-16,456,-49r0,172v-136,33,-287,49,-452,49v-465,0,-807,-381,-807,-848v0,-467,343,-847,807,-840v505,7,776,301,776,840xm827,-373r0,-410v0,-37,-16,-55,-49,-55v-33,0,-49,19,-49,58r0,407v0,36,17,54,51,54v31,0,47,-18,47,-54","w":1640},"A":{"d":"886,0r-312,0r-53,-385r-141,0r-53,385r-312,0r236,-1434r399,0xm495,-584r-45,-428r-43,428r88,0","w":901},"B":{"d":"743,-283v6,183,-141,282,-313,283r-397,0r0,-1434r371,0v172,1,329,76,329,254r0,199v0,101,-61,172,-184,213v129,32,194,101,194,207r0,278xm436,-930r0,-244v0,-50,-29,-75,-88,-75r0,395v59,0,88,-25,88,-76xm436,-260r0,-363v0,-50,-29,-75,-88,-75r0,514v59,0,88,-25,88,-76","w":776},"C":{"d":"724,-212v3,143,-177,225,-326,225v-243,0,-364,-86,-364,-258r0,-923v0,-186,121,-279,364,-279v217,0,326,85,326,254r0,260r-287,0r0,-284v0,-23,-14,-35,-43,-35v-30,0,-45,12,-45,35r0,995v0,23,15,35,45,35v29,0,43,-12,43,-35r0,-354r287,0r0,364","w":758},"D":{"d":"751,-283v4,179,-147,283,-326,283r-394,0r0,-1434r392,0v172,1,328,97,328,283r0,868xm434,-260r0,-914v0,-50,-29,-75,-88,-75r0,1065v59,0,88,-25,88,-76","w":782},"E":{"d":"651,0r-616,0r0,-1434r612,0r0,185r-297,0r0,387r268,0r0,174r-268,0r0,504r301,0r0,184","w":668},"F":{"d":"625,-1249r-275,0r0,387r246,0r0,174r-246,0r0,688r-315,0r0,-1434r590,0r0,185","w":641},"G":{"d":"314,13v-153,-1,-282,-80,-282,-245r0,-936v0,-186,119,-279,356,-279v225,0,338,85,338,254r0,266r-285,0r0,-290v0,-23,-16,-35,-47,-35v-31,0,-47,12,-47,35r0,995v0,23,16,35,47,35v31,0,47,-12,47,-35r0,-268r-65,0r0,-220r350,0r0,710r-151,0r-41,-79v-69,61,-143,92,-220,92","w":758},"H":{"d":"748,0r-315,0r0,-688r-88,0r0,688r-315,0r0,-1434r315,0r0,572r88,0r0,-572r315,0r0,1434","w":778},"I":{"d":"344,0r-315,0r0,-1434r315,0r0,1434","w":373},"J":{"d":"356,13v-151,0,-324,-82,-324,-225r0,-364r278,0r0,354v0,23,15,35,44,35v29,0,44,-12,44,-35r0,-1212r315,0r0,1189v0,172,-119,258,-357,258","w":743},"K":{"d":"821,0r-346,0r-121,-532r0,532r-315,0r0,-1434r315,0r0,478r138,-478r292,0r-194,654","w":831},"L":{"d":"629,0r-591,0r0,-1434r315,0r0,1250r276,0r0,184","w":643},"M":{"d":"1132,0r-281,0r0,-805r-164,805r-217,0r-188,-805r0,805r-246,0r0,-1434r405,0r144,744r125,-744r422,0r0,1434","w":1167},"N":{"d":"836,0r-324,0r-214,-764r0,764r-263,0r0,-1434r358,0r180,654r0,-654r263,0r0,1434","w":870},"O":{"d":"751,-247v-1,180,-166,260,-359,260v-240,0,-360,-86,-360,-258r0,-923v0,-186,121,-279,362,-279v238,0,357,92,357,277r0,923xm443,-230r0,-977v0,-29,-17,-43,-51,-43v-35,0,-53,14,-53,43r0,977v0,29,18,43,53,43v34,0,51,-14,51,-43","w":782},"P":{"d":"366,-1434v241,6,388,26,388,254r0,398v0,94,-26,161,-78,200v-52,39,-163,57,-334,54r0,528r-307,0r0,-1434r331,0xm447,-809r0,-344v0,-51,-35,-76,-105,-76r0,496v70,0,105,-25,105,-76","w":776},"Q":{"d":"752,196r-125,0v-129,0,-193,-61,-193,-183v-267,0,-401,-86,-401,-258r0,-923v0,-186,121,-279,362,-279v238,0,357,92,357,277r0,923v0,100,-53,175,-158,226v0,23,8,37,24,43v16,6,61,8,134,8r0,166xm445,-230r0,-977v0,-29,-17,-43,-52,-43v-35,0,-53,14,-53,43r0,977v0,29,18,43,53,43v35,0,52,-14,52,-43","w":784},"R":{"d":"428,-1434v171,1,336,77,330,254r0,172v0,111,-65,187,-195,226v131,31,200,110,196,237r-5,157v0,229,20,359,59,390r-315,0v-34,-40,-55,-159,-51,-348r5,-269v0,-49,-33,-73,-98,-73r0,688r-315,0r0,-1434r389,0xm452,-938r0,-236v0,-50,-33,-75,-98,-75r0,387v65,0,98,-25,98,-76","w":821},"S":{"d":"34,-574r287,0r0,329v0,33,20,49,59,49v38,0,57,-16,57,-49r0,-170v0,-52,-34,-114,-104,-183v-133,-131,-216,-219,-250,-262v-62,-78,-49,-182,-49,-308v0,-186,121,-279,364,-279v217,0,326,85,326,254r0,248r-287,0r0,-264v0,-29,-16,-43,-47,-43v-69,0,-49,110,-49,176v0,53,34,116,106,186v130,127,213,216,251,264v68,87,53,211,53,353v0,191,-122,286,-365,286v-235,0,-352,-87,-352,-260r0,-327","w":784},"T":{"d":"692,-1247r-176,0r0,1247r-315,0r0,-1247r-176,0r0,-187r667,0r0,187","w":717},"U":{"d":"401,13v-186,-1,-368,-70,-368,-258r0,-1189r315,0r0,1204v0,29,18,43,53,43v35,0,52,-14,52,-43r0,-1204r315,0r0,1187v0,179,-175,262,-367,260","w":801},"V":{"d":"839,-1434r-193,1434r-446,0r-193,-1434r307,0r109,1002r108,-1002r308,0","w":846},"W":{"d":"1284,-1434r-184,1434r-373,0r-113,-791r-106,791r-322,0r-178,-1434r283,0r80,662r108,-662r355,0r86,662r106,-662r258,0","w":1288},"X":{"d":"926,0r-338,0r-144,-461r-135,461r-301,0r248,-815r-184,-619r303,0r112,416r125,-416r283,0r-215,664","w":932},"Y":{"d":"895,-1434r-309,867r0,567r-315,0r0,-556v-6,-51,-33,-150,-81,-297r-182,-581r301,0r142,508r161,-508r283,0","w":901},"Z":{"d":"731,0r-711,0r0,-182r347,-1065r-326,0r0,-187r666,0r0,189r-345,1061r369,0r0,184","w":752},"[":{"d":"298,0r-264,0r0,-1434r264,0r0,78r-135,0r0,1282r135,0r0,74","w":322},"\\":{"d":"657,0r-170,0r-459,-1434r170,0","w":684},"]":{"d":"288,0r-264,0r0,-74r135,0r0,-1282r-135,0r0,-78r264,0r0,1434","w":322},"^":{"d":"239,-690r-185,0r353,-801r145,0r355,801r-181,0r-247,-597","w":961},"_":{"d":"766,246r-766,0r0,-162r766,0r0,162","w":762},"`":{"d":"297,-1249r-156,0r-121,-185r218,0","w":317},"a":{"d":"370,-989v-74,0,-54,203,-49,287r-275,0r0,-232v0,-157,113,-235,340,-235v212,0,318,82,318,245r0,924r-252,0r0,-45v-21,41,-82,61,-183,61v-155,0,-233,-61,-233,-182v0,-144,-29,-292,56,-369v40,-36,114,-87,228,-145v66,-33,99,-60,99,-80r0,-172v0,-38,-16,-57,-49,-57xm419,-217r0,-299v-65,16,-98,45,-98,88r0,211v0,35,17,53,51,53v31,0,47,-18,47,-53","w":739},"b":{"d":"698,-174v-3,183,-285,247,-428,135r-24,39r-215,0r0,-1434r284,0r0,308v34,-29,93,-43,177,-43v99,0,206,58,206,161r0,834xm414,-217r0,-719v0,-35,-16,-53,-49,-53v-33,0,-50,17,-50,51r0,721v0,35,17,53,50,53v33,0,49,-18,49,-53"},"c":{"d":"698,-647r-284,0r0,-285v0,-38,-16,-57,-49,-57v-33,0,-50,19,-50,57r0,711v0,39,17,59,50,59v33,0,49,-20,49,-59r0,-281r284,0r0,283v0,157,-110,235,-329,235v-225,0,-338,-82,-338,-245r0,-695v0,-163,113,-245,338,-245v219,0,329,78,329,235r0,287"},"d":{"d":"31,-1008v-2,-102,101,-161,207,-161v79,0,137,14,176,43r0,-308r284,0r0,1434r-215,0r-24,-39v-136,112,-429,49,-428,-135r0,-834xm414,-217r0,-721v0,-34,-16,-51,-49,-51v-33,0,-50,18,-50,53r0,719v0,35,17,53,50,53v33,0,49,-18,49,-53"},"e":{"d":"699,-492r-383,0r0,271v0,39,17,59,50,59v33,0,49,-20,49,-59r0,-234r284,0r0,236v0,157,-112,235,-335,235v-221,0,-332,-82,-332,-245r0,-695v0,-163,111,-245,332,-245v223,0,335,78,335,235r0,442xm415,-666r0,-266v0,-38,-16,-57,-49,-57v-33,0,-50,19,-50,57r0,266r99,0","w":731},"f":{"d":"119,-1161v8,-226,22,-269,268,-273r180,0r0,156v-55,-1,-132,0,-146,28v-10,19,-18,48,-18,89r164,0r0,172r-164,0r0,989r-284,0r0,-989r-96,0r0,-172r96,0","w":569},"g":{"d":"238,16v-103,0,-207,-62,-207,-161r0,-834v0,-127,76,-190,227,-190v40,0,93,17,158,51r37,-43r245,0r0,1145v0,75,-17,137,-44,188v-51,97,-389,71,-572,74r0,-168r231,0v67,0,101,-35,101,-105v-37,29,-96,43,-176,43xm414,-207r0,-729v0,-35,-16,-53,-49,-53v-33,0,-50,18,-50,53r0,727v0,35,17,53,50,53v33,0,49,-17,49,-51"},"h":{"d":"494,-1169v104,0,206,60,206,161r0,1008r-284,0r0,-936v0,-35,-16,-53,-49,-53v-33,0,-50,17,-50,51r0,938r-284,0r0,-1434r284,0r0,308v34,-29,93,-43,177,-43","w":733},"i":{"d":"312,-1225r-285,0r0,-209r285,0r0,209xm312,0r-285,0r0,-1161r285,0r0,1161","w":340},"j":{"d":"324,-1225r-285,0r0,-209r285,0r0,209xm-121,246r0,-168v75,0,120,-4,136,-11v16,-7,24,-30,24,-69r0,-1159r285,0r0,1188v0,146,-77,219,-232,219r-213,0","w":365},"k":{"d":"828,0r-335,0r-175,-420r0,420r-284,0r0,-1434r284,0r0,643r146,-370r295,0r-207,508","w":840},"l":{"d":"319,0r-285,0r0,-1434r285,0r0,1434","w":352},"m":{"d":"675,-1090v103,-126,409,-101,409,89r0,1001r-284,0r0,-928v0,-35,-16,-53,-49,-53v-33,0,-50,17,-50,51r0,930r-284,0r0,-930v0,-35,-16,-53,-49,-53v-33,0,-50,17,-50,51r0,932r-284,0r0,-1161r284,0r0,41v39,-33,98,-49,177,-49v66,0,126,26,180,79","w":1118},"n":{"d":"316,-1122v108,-87,383,-56,383,118r0,1004r-285,0r0,-932v0,-35,-16,-53,-49,-53v-33,0,-49,17,-49,51r0,934r-285,0r0,-1161r285,0r0,39"},"o":{"d":"365,-1169v164,0,330,69,330,235r0,715v0,157,-110,235,-330,235v-226,0,-339,-82,-339,-245r0,-695v0,-163,113,-245,339,-245xm410,-221r0,-711v0,-38,-16,-57,-49,-57v-33,0,-50,19,-50,57r0,711v0,39,17,59,50,59v33,0,49,-20,49,-59","w":721},"p":{"d":"698,-145v2,101,-101,161,-206,161v-79,0,-138,-14,-177,-43r0,273r-284,0r0,-1407r215,0r24,47v133,-112,428,-47,428,135r0,834xm414,-217r0,-719v0,-35,-16,-53,-49,-53v-33,0,-50,18,-50,53r0,721v0,34,17,51,50,51v33,0,49,-18,49,-53"},"q":{"d":"31,-979v2,-183,286,-247,428,-135r24,-47r215,0r0,1407r-284,0r0,-273v-37,29,-96,43,-176,43v-103,0,-207,-62,-207,-161r0,-834xm414,-215r0,-721v0,-35,-16,-53,-49,-53v-33,0,-50,18,-50,53r0,719v0,35,17,53,50,53v33,0,49,-17,49,-51"},"r":{"d":"500,-1169v105,0,207,63,207,165r0,324r-285,0r0,-252v0,-35,-16,-53,-49,-53v-33,0,-49,17,-49,51r0,934r-285,0r0,-1161r285,0r0,39v38,-31,97,-47,176,-47"},"s":{"d":"31,-467r284,0r0,246v0,39,16,59,48,59v32,0,48,-38,48,-113v0,-98,-17,-166,-59,-190v-146,-83,-237,-134,-269,-163v-59,-54,-46,-184,-46,-296v0,-163,111,-245,332,-245v215,0,323,78,323,235r0,229r-278,0v5,-87,20,-284,-47,-284v-79,0,-52,191,-29,233v17,31,107,79,261,165v71,39,99,110,99,188r0,174v0,163,-112,245,-337,245v-220,0,-330,-78,-330,-235r0,-248","w":725},"t":{"d":"432,-283v6,90,52,81,164,86r0,197r-180,0v-254,-5,-269,-42,-269,-281r0,-708r-127,0r0,-172r127,0r0,-234r285,0r0,234r154,0r0,172r-154,0r0,706","w":618},"u":{"d":"238,16v-103,0,-207,-62,-207,-161r0,-1016r284,0r0,944v0,35,17,53,50,53v33,0,49,-17,49,-51r0,-946r284,0r0,1161r-284,0r0,-39v-37,37,-95,55,-176,55"},"v":{"d":"769,-1161r-209,1161r-344,0r-209,-1161r287,0r98,686r96,-686r281,0","w":776},"w":{"d":"1216,-1161r-199,1161r-313,0r-89,-475r-81,475r-328,0r-199,-1161r275,0r98,631r88,-631r287,0r88,631r98,-631r275,0","w":1223},"x":{"d":"795,0r-314,0r-98,-315r-92,315r-285,0r223,-614r-217,-547r301,0r97,301r77,-301r271,0r-191,561","w":801},"y":{"d":"783,-1161r-221,1155v-43,197,-64,252,-251,252r-199,0r0,-156v75,0,121,-4,139,-11v18,-7,27,-29,27,-65v0,-136,-209,-912,-271,-1175r285,0r119,614r94,-614r278,0","w":791},"z":{"d":"711,0r-684,0r0,-160r323,-815r-305,0r0,-186r635,0r0,157r-328,820r359,0r0,184"},"{":{"d":"167,-981v0,-39,-9,-162,-9,-202v0,-174,90,-261,270,-261r182,0r0,156v-90,-4,-166,15,-166,69r0,342v0,76,-46,130,-139,162v93,32,139,87,139,164r0,342v0,47,55,70,166,70r0,155r-182,0v-210,0,-281,-92,-275,-294r7,-222v0,-82,-47,-123,-140,-123r0,-182v98,0,147,-59,147,-176","w":633},"|":{"d":"316,0r-284,0r0,-1434r284,0r0,1434","w":348},"}":{"d":"473,-1182v1,39,-9,161,-9,201v0,117,49,176,146,176r0,182v-97,0,-146,58,-146,175v-1,40,11,163,10,202v0,175,-90,262,-271,262r-183,0r0,-155v93,3,166,-17,166,-70r0,-342v0,-77,47,-132,140,-164v-93,-28,-140,-82,-140,-162r0,-342v0,-46,-55,-69,-166,-69r0,-156r183,0v180,0,270,87,270,262","w":633},"~":{"d":"87,-557r0,-205v71,-80,163,-120,278,-120v73,0,177,29,314,87v74,31,132,47,173,47v89,0,175,-46,258,-137r0,212v-81,76,-174,114,-277,114v-71,0,-166,-27,-287,-81v-206,-91,-295,-65,-459,83","w":1196}}});
